{
  "layers": [
    {
      "size": 9,
      "activation": "sigmoid"
    },
    {
      "size": 12,
      "activation": "sigmoid"
    },
    {
      "size": 1,
      "activation": "sigmoid"
    }
  ],
  "weights": [
    [
      [
        -2.4109393891487105,
        2.7514777266495365,
        2.094969303794145,
        2.7494096735084903,
        -2.4302862689867055,
        0.5956586314096404,
        0.34762466150934274,
        2.0303672945865006,
        5.19036367751763,
        -2.85815707556513,
        1.8870329244502295,
        0.6264872230657565
      ],
      [
        2.262018690356669,
        2.2951545646111637,
        -0.6512168853332828,
        -2.8403761657834075,
        -2.663307126503137,
        -5.307941360317165,
        0.6794101185729656,
        2.5196500026992465,
        1.226465625183776,
        -2.3754926662336064,
        -0.07716602340530342,
        -2.1729402037618955
      ],
      [
        -5.717171697646609,
        -1.206969696682421,
        -0.6991317250060309,
        4.034580230349126,
        -0.30878212171802677,
        -0.7726333584488435,
        -1.4527254070707833,
        0.6641636631609729,
        -0.6472948562162041,
        2.1403475401103624,
        2.3466598422844442,
        3.1080481675897094
      ],
      [
        -0.8738195026772451,
        0.9437090680158142,
        2.9031346656560877,
        2.7883455450940926,
        0.11930642824590663,
        -0.918910560377087,
        0.46656116136542625,
        0.12882384621431558,
        2.429744987393365,
        1.535944300319801,
        -1.2566680041417693,
        -2.782957251718294
      ],
      [
        -1.8357940023788049,
        3.420887202744168,
        0.2650898010899951,
        0.9833186670903237,
        2.690333640202169,
        -2.037321154919986,
        -0.9968451662971444,
        -2.6495043903856534,
        2.054455986479251,
        3.091815074229542,
        0.7607589081064258,
        -4.2812032225638275
      ],
      [
        2.6002084001435484,
        -1.4363181312616966,
        2.042047183338018,
        0.33851637671662616,
        2.514831608225555,
        -2.2854732413802403,
        0.4883706945817876,
        -1.3415985170501994,
        2.343518900498844,
        -0.34839008682101297,
        -2.1598038138235762,
        -2.357266349013107
      ],
      [
        1.9940992621515348,
        2.495760525791691,
        1.8872129218272784,
        -2.2509447833250165,
        -3.602384063602506,
        -3.5436246407085368,
        -0.08966472760696187,
        -2.0163849330621737,
        -3.2515072933313585,
        -0.8475160443763453,
        -2.7835555540264973,
        1.878435553944832
      ],
      [
        -3.5232900614442504,
        -0.2928539717464935,
        0.5350577475034579,
        -3.7853192404236373,
        4.172480198637716,
        1.49679282978816,
        0.18756023122165133,
        -0.2172819194987167,
        1.1852289313984272,
        -1.6356401615763698,
        -2.1954932052539053,
        -3.7418976677886087
      ],
      [
        -1.029680844172753,
        -0.7431632077393175,
        -3.119226603681201,
        -2.305509225732405,
        2.007809204715454,
        -0.816211514204123,
        0.7231627841006493,
        -0.6723917765210802,
        -1.9529451694675506,
        -0.6680820289155346,
        1.4936478652493212,
        2.491246384220546
      ]
    ],
    [
      [
        -6.982054052583189
      ],
      [
        5.924650434561286
      ],
      [
        -6.337352319147799
      ],
      [
        7.860982412297665
      ],
      [
        8.018674688630451
      ],
      [
        -8.885000061621238
      ],
      [
        0.6135348955220621
      ],
      [
        -9.455432968924226
      ],
      [
        7.073218015094005
      ],
      [
        -7.055184142789636
      ],
      [
        -7.0935478410605395
      ],
      [
        8.451564984006767
      ]
    ]
  ]
}